<?xml version="1.0"?>
<opencv_storage>
<opencv_ml_ann_mlp>
  <format>3</format>
  <layer_sizes>
    90 15 3</layer_sizes>
  <activation_function>SIGMOID_SYM</activation_function>
  <f_param1>1.</f_param1>
  <f_param2>1.</f_param2>
  <min_val>-9.4999999999999996e-01</min_val>
  <max_val>9.4999999999999996e-01</max_val>
  <min_val1>-9.7999999999999998e-01</min_val1>
  <max_val1>9.7999999999999998e-01</max_val1>
  <training_params>
    <train_method>BACKPROP</train_method>
    <dw_scale>1.0000000000000001e-01</dw_scale>
    <moment_scale>0.</moment_scale>
    <term_criteria>
      <epsilon>1.0000000000000000e-03</epsilon>
      <iterations>1000</iterations></term_criteria></training_params>
  <input_scale>
    1.1717001988274147e+00 -2.6037782196164772e-01
    4.3656412506539937e+00 -2.4253562503633297e-01
    2.0797386677282696e-02 -4.5696480171473924e-01
    3.6153097024090660e-03 -6.2504687743872289e-01
    3.6112705410521881e-03 -6.5955843909494827e-01
    5.2992808298533761e-03 -6.4960350839285963e-01
    5.1978292096634187e-03 -6.6156815107438283e-01
    5.2444941647069865e-03 -6.9300163170864260e-01
    2.7861334082573768e-03 -6.8453749988990276e-01
    6.5648375217550051e-04 -9.5031493825338487e-01
    4.8086240375295970e-04 -1.3590373686068022e+00
    8.2800397306943439e-04 -1.2039407769533206e+00
    2.1731688843836562e-03 -1.3453122710381711e+00
    1.7342586556417985e-03 -1.2276624327882109e+00
    3.6183566969432515e-03 -8.8679892047584197e-01
    1.0501684160321120e-02 -1.1020934099359219e+00
    4.2282985736667696e-03 -9.0027523797654962e-01
    4.8382880447776768e-03 -1.1757039948809755e+00
    2.8354227966053538e-02 -8.5692777852961799e-01
    7.3270707774497745e-03 -9.2219326923958134e-01
    1.1368760482907761e-02 -8.7444716047698867e-01
    6.2273776521790981e-03 -9.1334872231960096e-01
    1.5891112822775066e-02 -9.8922177321774785e-01
    1.8024602347862503e-02 -7.6304149939284605e-01
    9.3679701164314007e-03 -8.7148144222024326e-01
    9.8192341150563824e-03 -1.0498397808014450e+00
    1.7197115601968949e-02 -8.4648024574136049e-01
    1.5717209549578701e-02 -1.0128868376395164e+00
    9.1969859472747911e-03 -7.1455471373687751e-01
    2.5998886404881308e-02 -5.7630864864153564e-01
    1.7133436342876500e-02 -8.4382173988666764e-01
    1.5872781354402621e-02 -5.8376562536747423e-01
    3.8823048791067620e-02 -5.9960042021759996e-01
    2.0921765567306072e-02 -7.8747200954721464e-01
    4.2722605319101679e-02 -6.3253190653003322e-01
    3.1444765909779258e-02 -6.5771968694621619e-01
    4.0593418123542772e-02 -7.0925722221412235e-01
    4.1644358063941712e-02 -6.3391967275111272e-01
    1.0963794660227640e-01 -2.6800386947223120e-01
    4.8774085240601103e-02 -6.5709531504698704e-01
    1.7986021300547324e-02 -6.8446803282638435e-01
    9.5265101645908193e-02 -5.0014178364101802e-01
    3.2066666620040235e-02 -5.7007407324515980e-01
    2.7957903790764183e-02 -6.9661776945320764e-01
    7.2461307863678520e-02 -3.7237060985501463e-01
    1.4874534606004281e-02 -6.3051499468784811e-01
    2.7980315000584143e-02 -6.8551771751431145e-01
    1.4020643458469418e-02 -6.7065411209678716e-01
    1.5061691001690802e-02 -4.4683016638349382e-01
    7.5175110065017099e-03 -5.7926598700099285e-01
    2.5738106060934724e-03 -4.8416237290180542e-01
    1.2669587728153589e-03 -6.2503299458891037e-01
    1.2297897311418784e-03 -6.4095957570597406e-01
    1.7147050712230660e-03 -5.7175887986004681e-01
    3.1217774398336461e-03 -6.9381503600302785e-01
    3.8902841414880144e-03 -6.8404162821164260e-01
    2.8132005456582283e-03 -6.9321950112594843e-01
    4.9607839975713544e-03 -6.9933274410207291e-01
    3.4173517958693885e-03 -6.1588273476668320e-01
    1.4159519019062415e-02 -5.3294856307859917e-01
    1.9911309507282787e-02 -3.4070462934683882e-01
    2.2502197587542477e-01 -2.3127258631640876e-01
    5.0911688245431430e-01 -2.2627416997969524e-01
    2.0283702113484399e+00 -1.6903085094570330e-01 1. 0. 1. 0. 1. 0. 1.
    0. 1. 0. 1. 0. 1. 0. 1. 0. 1. 0. 1. 0. 1. 0. 1. 0. 1. 0. 1. 0. 1. 0.
    1. 0. 1. 0. 1. 0. 1. 0. 1. 0. 1. 0. 1. 0. 1. 0. 1. 0. 1. 0. 1. 0.</input_scale>
  <output_scale>
    5.2631578947368418e-01 4.9999999999999994e-01 5.2631578947368418e-01
    4.9999999999999994e-01 5.2631578947368418e-01 4.9999999999999994e-01</output_scale>
  <inv_output_scale>
    1.8999999999999999e+00 -9.4999999999999996e-01
    1.8999999999999999e+00 -9.4999999999999996e-01
    1.8999999999999999e+00 -9.4999999999999996e-01</inv_output_scale>
  <weights>
    <_>
      1.8800937882398051e-02 -1.9579812347811299e-02
      -3.1263509172230163e-02 -5.2961847319646441e-02
      -3.6784825297339714e-03 -1.2021819599106809e-02
      1.0761401016583124e-02 -1.5627743309238062e-02
      3.2303321294774631e-02 -1.2609387264363418e-02
      3.9771099532455091e-02 1.2850737930162897e-02
      2.6969584026454714e-03 2.2289712858811147e-02
      1.6297899593474493e-02 -3.5019006277248466e-02
      -1.8210067987655131e-02 1.5777007783761027e-02
      1.1498602214194020e-02 -7.1264848266943473e-03
      4.5981831188136653e-02 -5.5038340994373269e-02
      4.2882332512328813e-02 -4.3349665076143414e-02
      -3.2307626517901068e-02 -3.5143336226839635e-02
      3.9020629681975612e-03 1.1467198138645805e-02
      -3.6587532014374882e-02 -4.3979805078886471e-03
      6.1020591694692365e-02 5.1723364234923970e-02
      2.4871262095686415e-02 1.3690850791374251e-01
      1.1011296379485877e-01 -7.1034652797012252e-02
      1.8020645863691515e-01 -2.7777379224854898e-01
      7.4687359589615698e-02 -5.8231070398585327e-02
      -2.4485476069722956e-02 -1.2479898612874761e-02
      7.2115063407309457e-02 1.1456262143206061e-01
      1.7260453594796746e-01 4.6613443568709619e-02
      6.1889350845387880e-02 6.5397045195361519e-02
      1.7490628497953120e-01 1.3636729083932786e-01
      -8.4133774173145895e-02 1.8316121338362620e-01
      -2.9501960501948138e-01 3.0549664557683681e-02
      -9.8105725315384321e-02 -1.5337166211366392e-02
      -4.9990064891853328e-02 7.7975343462444557e-02
      1.2776158946394822e-01 1.8020520552581068e-01
      2.8824907495713366e-02 4.7365498762381664e-02
      3.4123276310672190e-02 1.5963181377626878e-01
      1.3747519809895889e-01 -7.0922009538628233e-02
      1.5918926999246855e-01 -1.8059201368253963e-01
      1.4629618978544911e-02 -7.8622768305779425e-02
      -3.0290665184675165e-02 1.8960406950951374e-03
      4.9224993678431035e-02 6.8490539069408787e-02
      1.8365087915824763e-01 2.5094306330655101e-02
      4.5766361244023952e-02 6.3962338066606006e-02
      1.2825626388066044e-01 1.0363795260552745e-01
      -4.9164192319765355e-02 1.2503861941471875e-01
      -1.9183456949782213e-01 2.5362584152125740e-02
      -6.3821335619365149e-02 -6.0567326535918870e-02
      -1.7875395746595968e-02 4.9630627049617460e-02
      9.9542886802506933e-02 1.4227599405726044e-01
      5.1610578563575336e-02 7.1311482582201741e-02
      3.6514704810393248e-02 1.3025090336686634e-01
      1.1625565942500261e-01 -2.2938340409823180e-02
      1.1466462879945609e-01 -1.5931852127038135e-01
      2.6143550811970232e-02 -9.1769176563652008e-02
      -2.1993006309103010e-02 -3.5321612019844441e-02
      3.5892798263744446e-02 5.2173059860533472e-02
      1.5500864745340359e-01 1.9342518191170940e-02
      7.1217498799022880e-02 7.5490003561828320e-02
      1.1110640494841716e-01 1.2373189571034415e-01
      -5.5170039447506300e-02 1.1775728450996910e-01
      -1.4689049915367586e-01 9.4653470423152336e-03
      -5.4605967929726877e-02 -3.4093281929465875e-02
      -9.2598903237625270e-03 6.4088523581961904e-02
      8.3186751759164249e-02 1.2066926884161272e-01
      -5.8524607380794616e-03 6.7931951461239856e-02
      6.8511183260020342e-02 1.0476651590318556e-01
      8.3394351653837268e-02 -9.3108201779827753e-03
      6.9287058593562045e-02 -1.3247906198182996e-01
      -5.8177861340455266e-03 -5.8798229406253906e-02
      -3.7055866310852364e-02 -4.3551798433533344e-02
      6.4179847072766277e-02 3.1645339585541353e-02
      9.0868159126231557e-02 -2.8300706835040768e-02
      6.7096937934912115e-02 4.5066257254039496e-02
      3.0541542454587643e-03 1.3984566035308807e-02
      2.6026436285643464e-02 -1.9063872249317979e-02
      8.4663192381317726e-02 -2.7213492944244414e-02
      -5.4308930499401432e-03 -5.0912934112544460e-02
      -4.2702034987358535e-02 2.2418935760135601e-02
      -5.6530983238425231e-02 -2.8086412740553894e-02
      -5.7057591772683963e-02 7.8646582161400760e-02
      2.9422492222045842e-02 1.2087395270688367e-02
      7.1183984276452115e-03 5.0477753133868097e-02
      -5.9793020257305950e-02 6.8922702059048199e-02
      -8.1403619787318832e-02 1.0607680408722871e-02
      -7.8679068225122842e-02 -3.4048446865934036e-02
      -1.9339332809360250e-03 -4.7065526490236841e-02
      -1.7294399037566487e-02 -5.0417503729765743e-02
      5.9083021280294960e-02 3.1295348705800134e-02
      4.4490777732999032e-02 3.5947145957044221e-02
      4.8229071397607064e-02 -7.2893944553797958e-03
      1.9187403712449477e-02 -2.3646256823690537e-02
      -2.9882429176339400e-02 -4.9486262294776824e-02
      -3.0338732019457190e-02 2.7313862865926405e-02
      -6.7066684791434821e-04 2.7245894954933594e-02
      -7.8521186007792371e-02 6.2424228182312601e-02
      7.2320067888562573e-02 3.6132882117681703e-02
      1.2826202652940761e-02 5.0278717778530380e-02
      -5.7425547401976362e-02 6.4002494293476805e-02
      -5.5642938111659317e-02 -8.2834095958317418e-03
      -6.8034839179737627e-02 -4.0632483142411295e-02
      3.7723787922415236e-02 -5.7978878527071030e-02
      -5.9992261223740613e-03 -6.9487203585914079e-02
      1.9455062373361396e-02 4.0731229298755778e-02
      -7.1116838719422239e-03 -2.3976422403624648e-02
      2.9521442212626238e-02 -1.0343679816410091e-01
      1.3287570143353702e-01 -4.5713339608994173e-02
      1.9675657778539801e-03 -2.7918216286046217e-02
      -1.5392014457901261e-02 6.3867001248120100e-03
      -5.1575406590982448e-02 -3.6519678379108945e-02
      -8.9221036960364861e-02 -1.4566743342297494e-02
      1.6825219286607199e-02 -5.8287287029838639e-02
      -5.9709411179369828e-02 5.7771440945088452e-02
      -1.3785001073986558e-01 1.7940415102082025e-01
      -6.8371368838271371e-02 6.2121164719279561e-03
      -3.2558043878508761e-02 -1.7295078103213721e-02
      4.5688884599747008e-03 -8.5232508959667955e-02
      -9.3003492687409997e-02 -6.8770643212420671e-02
      -2.7430249839195349e-02 1.0502690068331717e-02
      -2.1394602828889078e-02 -3.5873814881382526e-02
      3.1276712614506562e-02 -1.0555103879629600e-01
      8.4240339900604852e-02 -4.5387523369862917e-02
      -8.4878693807328570e-03 -1.9318985536416243e-03
      4.3586841413946094e-02 -2.5884663323883686e-02
      -4.9600091149464752e-02 -5.8123147552582924e-02
      -1.0041205987246814e-01 5.6267063783964656e-03
      2.7188699416066674e-02 -4.1336262324969397e-02
      -3.0129576566371323e-02 8.6950635935461013e-02
      -1.4635618325020472e-01 1.6726260721680217e-01
      -6.2238716352829446e-02 1.2582403810299621e-02
      -4.5319529915249915e-02 6.0569763646549791e-04
      -3.8289499548374809e-02 -8.3628036925007185e-02
      -1.0549698054826784e-01 -4.7658644413527691e-02
      -5.2760944027278600e-02 -1.1341133013587466e-02
      -7.0239349429703807e-02 -3.6256482533328256e-02
      5.4281868298924445e-02 -1.1787538346946649e-01
      1.4057845024377061e-01 -5.4780133100861732e-03
      2.3084062003737804e-02 7.2367869498179095e-03
      5.2513116788738330e-02 -4.2322008049439627e-02
      -4.5624207528578757e-02 -6.2185068375009867e-02
      -1.0518722029177205e-01 -6.0759155514052100e-03
      7.4909119149827981e-04 -9.6103376980353414e-02
      -8.1192353550530352e-02 7.7258592358013786e-02
      -1.6390157413235926e-01 2.5442364813125090e-01
      -7.7843702466224102e-02 5.0510690239522760e-02
      -2.9018415224090089e-02 -6.7688632798833968e-03
      -4.2228498296258583e-02 -9.4354033294449746e-02
      -1.5503706720120120e-01 -5.6983752929948790e-02
      -2.4187217769609762e-02 -2.4643202462857807e-02
      -4.5150014827248848e-02 -4.5255429560360327e-02
      2.9890995206519520e-02 -7.7985920438853010e-02
      6.4279610781734733e-02 -1.1067297296618471e-02
      -5.3675862481385736e-03 6.5377759264950543e-03
      3.9672047765780434e-02 -1.8195085491395702e-02
      -2.8226800757119981e-02 -5.7234186365600771e-02
      -6.6001475003471298e-03 -2.6426987051694620e-02
      -2.5675772424673733e-02 -7.6421775512111309e-02
      -8.6052524915321338e-02 3.6323788785023202e-02
      -4.3860361475259325e-02 9.0698139608757250e-02
      1.0109250971883267e-02 4.1146845142908200e-02
      3.5582602496897223e-02 3.4988763321691136e-03
      -2.6964227671897364e-02 -5.3914337754923977e-02
      -9.8852952116443835e-02 -1.2478740084769650e-02
      -7.2299366846464846e-02 -5.1669964533697994e-02
      -9.4551241560059202e-02 -5.7095484347169663e-02
      4.4141590767501609e-03 -6.5478816884500343e-02
      6.8267056073093607e-02 -1.2929878661619987e-02
      9.8623566947567826e-03 2.8688075229655649e-02
      3.0212976493486522e-02 -2.3124430771706971e-02
      -7.9703728972157252e-03 -8.8165308493640612e-02
      -7.9886318671109652e-02 -1.0343225908651750e-02
      -1.9720398307011344e-02 -1.0861726006091953e-01
      -1.1022819463631593e-01 5.4204606653765856e-02
      -1.7140315036733866e-01 2.2094277523676153e-01
      -5.8142780519920445e-02 7.2967075069504103e-02
      -8.0762159567215087e-03 -1.6217419200853296e-02
      -6.7462949348771103e-02 -1.0704825439505818e-01
      -1.7579005935042974e-01 -1.2211868915822029e-01
      -3.2559324068302396e-03 -2.0227676008043500e-02
      -1.2261378983627472e-01 -1.2398379315519194e-01
      1.1266074629835938e-01 -1.8356575464381458e-01
      2.9300926147949241e-01 -7.3652294158883899e-02
      7.4526637922175842e-02 -3.9957847152311834e-02
      3.9391834681260320e-04 -3.3529970147391792e-02
      -1.2909413842036932e-01 -1.6872595151891881e-01
      -9.4193926008104677e-03 -4.7876395720408006e-02
      -3.4639045950092331e-02 -6.2271396368138415e-02
      -6.2082537048698413e-02 2.4083956543673513e-02
      -6.3522241303757471e-02 8.0625256860340402e-02
      1.5738663955508832e-02 3.4645606362199641e-02
      -4.8602210583856319e-03 2.1559597812178283e-02
      -3.7074208500979797e-02 -1.7563111682192808e-02
      -6.6139184617010627e-02 1.6124484508698800e-02
      -7.4349047974978960e-02 -9.2182058892825658e-02
      -1.5149546568249558e-01 -6.9285375236101884e-02
      -2.2866631525805585e-02 -3.2762893788366824e-02
      7.3948306226389066e-02 3.6412416474666850e-02
      5.4591586299261190e-02 9.6507825949219764e-02
      5.7702342095381200e-02 -5.6274439747723233e-02
      -1.4576405059424723e-02 -6.7345006503898172e-02
      -7.3195425567918096e-02 -2.4636361648681573e-02
      -1.2323751754374314e-02 -7.4033894391839800e-02
      -3.7190886353598018e-02 2.6083790590559264e-02
      -9.4063589666636110e-02 1.3240406358264289e-01
      -9.5711720207616244e-03 2.6068653034637866e-02
      -2.2653407785585240e-02 5.7963946635735571e-02
      -2.0796582290762904e-02 -6.7727746309555928e-02
      -7.6760820099403396e-02 -2.3336599135953148e-02
      -8.9706788802854057e-02 -4.8728887155846431e-02
      -9.9950192929562198e-02 -6.7279933654775678e-02
      1.6611103181600622e-02 -4.9823302219311055e-02
      6.7844868106935033e-02 1.1423989206508524e-03
      3.0674519473581820e-02 1.3779488884604370e-02
      7.0736238927598422e-02 -4.8138665976165264e-02
      -1.9608441947790271e-02 -9.2005166734389604e-02
      5.2621076175213506e-02 -3.7635082350887937e-02
      -6.1143578958138725e-02 -6.7521827134275667e-02
      -6.6097462229716436e-02 -4.1413600594091937e-02
      7.2792212511461223e-04 1.9515672004753855e-02
      2.8263182894056067e-02 4.4426479958978873e-02
      4.8909122770455143e-02 3.1618871251861455e-02
      -3.8045558766334947e-02 1.1902274664924538e-05
      -4.7547238447910201e-02 -1.2284055128721524e-01
      -7.0674643580101587e-03 1.3537242942450360e-02
      -5.0964556074404949e-02 -4.5247324751478045e-02
      7.1996448160650983e-02 -1.4677660892909222e-01
      1.9449738001559913e-01 -8.3797066756358313e-02
      4.6177376368061365e-02 -4.4842566880772393e-02
      -5.8054012321277102e-03 -7.9639746320541056e-03
      -1.0035278241489221e-01 -9.6035329357931312e-02
      4.5322832450357814e-02 -7.4540245139198852e-02
      -4.7368736223292761e-02 -6.7667125412054302e-02
      -6.5772217149369552e-02 -3.4139402441732553e-02
      -3.0890254135071747e-03 3.1404036678232133e-02
      5.3950375842305186e-02 2.7863519998875534e-02
      7.9849290368031969e-02 7.1937233035780451e-02
      -3.3832295657179198e-02 2.1958701977760387e-02
      -4.9109628536165538e-02 9.8616330164478048e-03
      -1.6756927954251800e-02 -2.0176792385266429e-02
      -6.3864503259169189e-02 -3.4376576040191523e-02
      -1.3264358029123263e-02 -4.3463994138627997e-02
      6.3191025508582799e-02 -7.7809336525341537e-03
      4.6665849520248381e-02 2.2144018777202183e-02
      3.1076975511181191e-02 -2.0809738716738531e-02
      -2.3218778480619009e-02 -4.3135245329086955e-02
      -6.4536501160543963e-02 6.7445516302758537e-03
      -1.1182117273413257e-02 -4.9126454506046281e-02
      -5.4523847748042725e-02 3.3990471846907420e-02
      -9.2778666594161785e-02 1.1321880362515582e-01
      -4.5777683672373254e-02 3.9581911558824123e-02
      -6.7233203764839447e-02 1.2018033994329326e-02
      -5.2798777921047625e-03 -5.1304569743275297e-02
      -5.5769607088661542e-02 4.2410820792878418e-02
      -8.1507392865079700e-02 -4.2752150582036755e-02
      -3.9967914979561106e-02 -1.0664055845848680e-02
      -3.9897021143880732e-02 2.0275842887006242e-02
      -1.2096171186053826e-02 2.8578539865222800e-02
      1.9474103088995998e-02 6.1704231265899620e-02
      7.1468806756515818e-02 -7.8675374816923292e-03
      2.1362762309191763e-02 -3.4070598695587852e-02
      1.7089465066029052e-02 -5.0639728486768308e-02
      -4.5092611077623482e-02 -2.9153770403087458e-02
      -2.8425544420560177e-02 -1.6019977735987293e-02
      -7.5414081420503085e-03 2.8738592175007079e-02
      1.8716723877299474e-02 9.3626927430780511e-03
      -5.7385820489708689e-03 3.7457307624606133e-02
      -7.4584131676181092e-03 8.5158419205903033e-03
      -2.7019154776269184e-02 4.4946945988611781e-03
      -4.8133798698424060e-02 -5.5859978957292812e-02
      -3.5579643779708847e-02 -8.1399926581235387e-03
      -8.4858362282869519e-03 -1.0082170548698408e-02
      -1.5882457435597762e-02 2.4003083392698941e-02
      -1.2325341513306123e-03 4.2090068004029139e-02
      2.3244974004889996e-02 6.0736466773506667e-04
      3.7172100038794600e-03 -2.8686786557115217e-02
      6.4437556840268917e-02 -7.3324086601944061e-02
      -5.2909820817334051e-02 -5.2359868961717321e-02
      -2.0297897796771901e-02 -6.8914557743199684e-02
      1.9129767909138413e-02 -3.6822035509146013e-02
      5.2451527741889784e-02 3.3514616251043454e-02
      7.4299655650158503e-02 5.6723488869865418e-02
      -3.6154998975237426e-02 3.7384259818438723e-02
      3.2071883453765370e-03 8.7899532773350941e-02
      -4.5155780613265591e-02 -4.3893992865458017e-02
      -3.0236748863814722e-02 -7.7138132929700735e-03
      -6.8358966002040916e-02 4.7596012954319429e-02
      -6.1575614308964452e-02 8.5588554099114658e-02
      3.4205429490058642e-02 5.2293955288396934e-02
      6.0300787763221272e-02 -3.0519816087122661e-02
      4.1173633741015972e-02 1.1069472299956259e-03
      3.9105835061172246e-02 -6.9559257017272622e-03
      -4.1790710390639978e-04 1.4974349329912633e-02
      1.3004538073913037e-02 -5.3010700280402029e-02
      4.4881991808285795e-02 -7.9663155483732217e-03
      3.4382835905162369e-02 3.5357510601876337e-03
      1.4714741711777203e-02 2.7512512379890630e-03
      1.4660140256012566e-02 2.8990241847279725e-02
      3.4866291597939067e-02 7.7046760309626025e-02
      -5.6255261746748268e-02 -4.0176026778423787e-02
      -2.5285804142545928e-02 -3.7841445427978994e-02
      -6.3227113662407297e-02 5.6127986007763829e-02
      -3.3338078677764803e-02 4.1365795387321241e-02
      9.4050302196207903e-03 6.3041355879882008e-02
      4.9569933708627473e-02 -6.1947744696249380e-03
      4.7612991343342390e-02 -7.7246522659150654e-03
      4.7556785790945071e-02 -5.4840801132760623e-02
      -7.5840866112470789e-02 -5.1776919820464916e-02
      -3.7423197779588073e-02 -5.6179455690376266e-02
      4.9337069539540729e-02 -2.7873392597008665e-02
      8.4991335537815557e-02 3.3833763863535650e-03
      8.9875242108514178e-02 6.8075715300641659e-02
      -1.2972492717396568e-02 2.0453847620678044e-02
      -2.2838649120452057e-02 -4.7387465743097467e-03
      -1.8838463330697094e-02 -1.2924903051062159e-02
      -4.0896034397320549e-02 -5.6582012699187756e-03
      -2.5870534682051749e-03 7.5425538374890638e-03
      1.5202835632377916e-03 3.3707443865742322e-02
      7.9650429394219832e-03 1.0062260058425906e-02
      4.0245763551352287e-02 -7.8805909003179658e-03
      -8.6059262776853399e-03 -2.7592006534524496e-02
      8.1877362842663198e-02 -5.5300722113452584e-02
      -5.0386568586134016e-02 -2.9336702334888859e-02
      -3.5819782863071081e-02 -5.8099799785152083e-02
      6.3848999253752606e-02 -3.4878709092584004e-02
      6.7417473966870797e-02 3.1720258609375274e-02
      5.0680223729053800e-02 6.2788482207763285e-02
      -1.9964719566969876e-02 6.6605088599043155e-02
      1.4065958137988869e-02 7.4780629479033398e-02
      -6.3277534348685785e-02 -4.1234526699957384e-02
      -4.0432995145132912e-02 -2.7075848008394982e-02
      -2.5574088106635508e-02 1.9752885237004587e-02
      -5.0923900332752500e-02 8.6539361184763991e-02
      4.2457503106348320e-02 8.0008177551927878e-02
      2.7739114829306369e-02 -3.1368781817480471e-02
      5.0249110685181966e-02 8.0922408912283434e-03
      1.1474276184731780e-02 -3.4876065996434324e-03
      -2.2973369930405826e-02 -2.1581952456370613e-02
      -1.1102232968098162e-02 -4.7971791103461503e-02
      5.1654368792797792e-02 -2.5381112516807591e-03
      3.0180411244900150e-02 2.2759557291475052e-02
      1.0022305238948518e-02 4.0688617755593848e-02
      -2.7058289080888159e-03 4.7150161293562573e-02
      3.0868814690137039e-02 6.7441664323055872e-02
      -4.3557965438966860e-02 -6.5512634853637688e-02
      -1.8735266923356583e-02 -2.6097993664289238e-02
      -5.4896487659125401e-02 3.2226213387968279e-02
      -1.9895721936825615e-02 6.5109748370805368e-02
      1.4561196669578207e-02 4.3502274576419565e-02
      6.4726445046479161e-02 -1.4099745208412610e-02
      1.9909440089694516e-02 -9.4369820725827697e-03
      6.1443596224336483e-02 -5.2534690722760478e-02
      -5.6149603494579529e-02 -4.9202174742846230e-02
      -1.3391271251663910e-02 -6.5772723101043679e-02
      4.0449617865605463e-02 -3.5249190636983695e-02
      4.3218710655251132e-02 1.8193645159106870e-03
      8.9853954974993641e-02 6.6292844552836641e-02
      -3.8397223829733949e-02 2.5732120293959399e-02
      1.2020271997232530e-02 4.6904484643783148e-02
      -4.5099005913645941e-02 -5.3860636734585410e-02
      -4.4048040262156758e-02 -2.0986079958347701e-02
      -4.6331588273075368e-02 2.3670819217579193e-02
      -3.0877766305187019e-02 5.9011571100492863e-02
      1.5164193104706715e-02 5.1982034287484970e-02
      6.5223745250998930e-02 -2.3845746306576571e-02
      2.5238157370152309e-02 1.7639720568925193e-02
      5.2110535390479752e-02 -4.8156726543388553e-02
      -5.0944343149565169e-02 -1.6774831911537561e-02
      1.0502102023134010e-02 -5.8326834056912788e-02
      5.4008557323722658e-02 -6.2905582940926789e-03
      6.6325821731003529e-02 2.2020010587051230e-02
      3.7104467699181111e-02 3.0745614280847353e-02
      -2.6568327772583437e-02 5.1361512614356952e-02
      2.1607584245795161e-03 4.8142351012994057e-02
      -3.5656623467813758e-02 -2.0866243666251730e-02
      -1.5741615896238959e-02 -1.1683044335942885e-02
      -4.8367413824137985e-02 1.5216098084888595e-02
      -8.1318904099051161e-03 4.4200746115598891e-02
      9.2779292606571372e-03 3.3922339695027080e-02
      3.3484621445400341e-02 3.7388266155823930e-03
      4.0139993858348225e-02 -5.1868028082469328e-03
      1.9500107458692923e-02 -3.2615609162273962e-02
      -2.2076114543992539e-02 -1.5756952355110571e-02
      -2.4402685097065450e-02 -1.8127050123073897e-02
      3.0064643159610639e-02 -2.5091969670923354e-02
      3.9288043744454305e-02 1.8547509438519994e-03
      3.0831520609579919e-02 4.9371515303311138e-02
      6.2360632757158339e-03 1.7930896272151508e-02
      -1.7415490185249488e-02 9.1628951152360111e-02
      -7.9925603435348477e-02 -8.1386263887587212e-02
      -9.6034358237616108e-02 -4.2561446848388744e-02
      -3.4156119812027617e-02 1.8980849271242380e-02
      -3.4657316896863813e-02 9.7883441886132669e-02
      3.8005326962578280e-02 1.1518034862961579e-01
      7.5858617120474536e-02 -4.3045661054113261e-02
      5.0994942153009641e-02 -1.2554467674450497e-02
      6.9744860090870484e-02 -5.4180092425063976e-02
      -5.1656848467717266e-02 -8.7103192306094188e-02
      -2.3331196166157541e-02 -6.1609284015210555e-02
      3.7312370864614051e-02 -5.7687572075031585e-02
      5.8776169416314195e-02 8.2350079926289226e-03
      7.5439811889303696e-02 1.7246177010804491e-02
      -2.5865422145529369e-02 3.2309606909349350e-02
      1.6657792330110799e-03 5.0259875677867161e-02
      -2.7055336202142087e-02 -5.5498513749704853e-02
      -3.1809321641884269e-02 -4.4388763155176800e-02
      -1.7699794272813422e-02 4.5506039201332608e-02
      -5.0490249518126140e-02 3.1491242974788947e-02
      6.9176149118183889e-03 5.5215134024869231e-02
      4.0943983291747643e-02 -2.8796909804638872e-02
      1.9153608042236384e-02 -2.0961444434250319e-02
      4.9895027030156927e-02 -8.0423752350404581e-02
      -7.7149502496972805e-02 -5.7900773445901110e-02
      -2.7971134904825876e-02 -3.7766739729367747e-02
      2.9655979871311765e-02 -5.1683123671294823e-02
      5.9509675311558721e-02 2.5766564567049930e-02
      9.4744748939669471e-02 5.6296287321416408e-02
      -4.3778418996536110e-02 4.8132253051809064e-02
      -5.9467137583441186e-03 4.3838897128854665e-02
      -5.8116391141391145e-02 -4.9158647337487912e-02
      -5.9664909895403205e-02 -4.0297077677679961e-02
      -3.1738377086558453e-02 2.0001105132797597e-02
      -5.7717135014018449e-02 4.4928864593685558e-02
      2.5425244143182181e-02 3.7016648330449417e-02
      5.0487563327413311e-02 -3.6743125023268805e-02
      3.5848069513298830e-02 -2.4912900003511401e-02
      7.5622452393962827e-02 -5.5170265839585876e-02
      -7.2550785048597827e-02 -6.6228931942114988e-02
      -4.7843240018134094e-02 -4.8950517860459439e-02
      5.5783519761475088e-02 -3.5465011281599970e-02
      8.9152761148500098e-02 6.5532746304356113e-03
      1.0169679899687897e-01 6.2868936558184957e-02
      -2.9167343334158338e-02 5.7867631517856281e-02
      -1.3834895914002748e-02 4.2931012429329930e-02
      -5.9215574868410552e-02 -3.8757703645689069e-02
      -6.7715546997629578e-02 -4.5867876175040435e-02
      -3.3778984481165404e-02 4.3308737768872729e-02
      -4.9538012417176203e-02 7.1401733553084865e-02
      4.1041028411578070e-02 7.4602097005347798e-02
      6.0315635829684085e-02 -2.2196428554669981e-02
      5.1353694932582135e-02 -3.0826786180330360e-02
      2.8843548349927275e-02 -3.2368868380440917e-02
      -4.5547672709212075e-02 -4.0566095427238276e-02
      2.0175776738670485e-04 -3.1266781215264647e-02
      2.6971926232314421e-02 -3.2532338961726526e-02
      1.0020937903023205e-02 4.2764408714161106e-03
      1.3153392785094869e-02 3.1448838052497291e-02
      -1.6424563361771744e-02 1.7509674527652688e-02
      7.6555738573255974e-03 1.3116374428225693e-02
      -2.3955528630099667e-02 -4.3330348814311380e-02
      -2.3829359860345473e-02 -2.6039485978608814e-04
      -1.3576234433211471e-02 1.5151947244505580e-02
      -2.4251549962025800e-02 1.6181998831970069e-02
      -1.9424348666559444e-02 3.3802090384301597e-02
      4.5340451171958590e-02 2.8955865657759516e-03
      2.1572059557832361e-02 1.7014742114118839e-02
      6.1950108759049769e-03 3.6088609145958016e-03
      -1.0884375390677575e-02 1.3578378180270401e-02
      -4.4482148010847513e-03 1.2644260950301309e-02
      2.9127371615818558e-02 -3.8044731708683811e-02
      -1.7006924196182369e-02 1.2739428301523272e-02
      6.3065400041940108e-04 1.9251823705690691e-02
      2.6462958664432009e-03 4.7530021454797516e-03
      -1.1523462615345559e-02 -3.9834880866129888e-03
      -1.1484473044137770e-02 -1.8848474526855719e-02
      2.1709231635908693e-02 -3.0345702555945519e-03
      -1.8399094715819332e-02 3.2784489390602932e-02
      -4.4569042729481978e-02 8.7013409179528614e-03
      1.3466129551846390e-02 6.5997559501104752e-03
      9.7443926264254264e-03 1.0290180234717027e-02
      2.5275266492808207e-04 1.1949943670033360e-02
      2.6723064609779785e-04 1.0379729816495341e-02
      -1.3563095231011726e-02 1.0255106930714620e-02
      1.4514714458016366e-02 -7.0996109648494912e-03
      2.1558518579726647e-02 -8.2156839401858237e-02
      8.1512766731735489e-03 5.1083601425178284e-03
      8.1951995047654727e-03 5.9162981449990210e-03
      -3.7393768147838883e-03 2.4500801368044636e-02
      6.7077662656679976e-03 5.1595228606616745e-03
      1.3110169529643377e-02 8.6512420860412453e-03
      1.9328904485640404e-02 -1.5895178188383326e-02
      -7.2534839092813974e-03 3.7303862118486658e-02
      -3.2427525629099757e-02 7.0580794836955906e-03
      2.3865883742286511e-02 -2.3917640873212923e-02
      -4.3010375037268586e-03 1.2189012495861922e-02
      5.2083326066273694e-03 -4.7057963385414613e-03
      -9.0990402729413476e-03 -9.2097302578737143e-04
      -6.2841479291796706e-04 1.1402874689570321e-02
      -1.5447065771498410e-02 -5.5019102399653302e-03
      -2.1010204472878265e-02 7.7732374712685568e-03
      1.3074918162035138e-02 -1.0418128790581800e-02
      4.4322204198182424e-03 -1.7419195724634927e-02
      1.4051439993521781e-02 -1.2423850394452160e-02
      2.0406487937629107e-02 -1.3094386381076186e-02
      -1.0849163709720817e-02 9.2051947428368639e-04
      1.4717055218728401e-02 7.1571643620809465e-03
      -1.3154936304073163e-02 -2.1660835745333593e-02
      -2.5318745120756093e-03 -8.4735359140948631e-03
      2.0011266070315906e-02 -2.0932514383369448e-03
      1.7725195062853940e-02 1.0630038231878344e-02
      1.1839230178565970e-02 1.6334549846001040e-02
      1.6639869072319055e-02 -1.0038164459027445e-02
      2.1723168464111632e-02 -2.0964373091663997e-02
      -1.0692637195419427e-03 -1.2108579771383956e-02
      1.9286195455936340e-02 2.1275447929513854e-03
      1.3961028793422956e-02 -1.4202460078188855e-02
      -1.0196179522294102e-02 -1.9001548901315862e-02
      2.0296074394557061e-02 6.3095976664418135e-04
      1.4675690060968469e-03 -1.3006616887184890e-02
      1.4213599957820820e-02 2.0309401397415976e-02
      8.6745579996282878e-04 1.0125034610064018e-02
      1.3509893979306246e-02 1.9180221159487074e-02
      1.8726155279523204e-02 1.7634219853681066e-02
      2.0548473385907096e-02 1.5235450377403819e-02
      -1.6751149210369316e-02 -1.2150775942601680e-02
      1.8737763710654290e-02 -7.7532628302712514e-03
      8.9007136373099646e-03 -8.8649932952851382e-03
      5.8455143524016994e-05 1.4215103421462129e-02
      -1.0642336772116730e-02 -5.2303010738316167e-04
      8.0468568228223569e-03 -2.4246890040039359e-03
      6.8809728140526184e-05 1.5785658191631850e-02
      6.8865608291098519e-03 6.6736705426734071e-04
      -1.9738673129532945e-02 -1.3980877034336488e-02
      -6.8383399108019700e-03 -1.4963749882010009e-02
      -1.2096561514585630e-02 -1.7807592050417608e-02
      2.1380737417720362e-02 -1.6543837059823409e-02
      1.6855078978402448e-02 -2.2198804679291563e-02
      2.9312615241405956e-03 -1.7356697203853782e-02
      -1.4387015975741477e-02 -2.8164234270147710e-03
      -4.8862778319077784e-03 -1.2988889248124464e-02
      -7.5079670753481530e-03 1.2793840300580287e-02
      -1.4221992856876588e-02 1.0695852318255263e-02
      -8.1091381644915490e-03 6.7725435767301608e-03
      1.7746830277270354e-02 -1.1319016341650305e-02
      3.3905362840122217e-03 1.0227847183320548e-02
      6.7587392758826489e-04 -1.3292968564691683e-02
      -2.5210849692583301e-03 -1.0980982076585603e-02
      1.2100146453794799e-02 -2.0350438970461564e-02
      2.9246005029748222e-03 -1.4455548260317407e-02
      -2.1774743691437969e-02 1.7508479651536239e-02
      -3.2286032991698742e-03 9.6595681227923235e-03
      -1.8930642649156542e-02 1.3095644692322780e-05
      3.2874906608210833e-03 1.4469405499610479e-02
      -5.8385586424904998e-03 1.3776148464795256e-02
      1.8482799639742465e-02 -1.7502189669472295e-02
      -1.3890201290150448e-02 -1.0879500093940267e-02
      1.4098026206422346e-02 1.0340246070070388e-02
      -1.8293071174502563e-02 1.6810020515818497e-03
      1.9619295734711537e-02 -6.5442720168988897e-03
      1.0066406282223696e-02 -8.9916126577395793e-03
      5.0460136260594779e-03 -2.0095858869128562e-02
      2.4171714806091828e-04 -3.0400249922116354e-03
      6.6048010211639174e-03 -1.7466218286152132e-02
      -1.2312784310271729e-02 -1.0117083997817000e-02
      9.0815577125214608e-03 -3.3822175822598110e-03
      2.3280719785755535e-02 -1.4076108407888649e-02
      4.8992765136983809e-03 1.0533510775926019e-02
      1.4979597192216955e-02 -1.5335166825017496e-02
      1.4169189481897909e-02 5.2182043301393132e-03
      2.1224042157416349e-02 -7.8227921477803473e-03
      1.0203978100289904e-02 1.9647592400769770e-02
      -1.0641000802484044e-02 -5.6687267203336623e-03
      1.1681155175415013e-02 -1.7497688123056087e-02
      4.9620460473390965e-03 -4.8917600711618709e-03
      1.1827416716082457e-05 1.2525275353150140e-02
      1.4014040352542495e-02 -9.6125741219242108e-03
      1.0584228706865350e-02 -1.9054473645257895e-02
      -1.6839979640488192e-02 5.8371027557452574e-03
      -1.9831727480070883e-02 2.2215063550008580e-03
      9.0961056676171891e-03 3.6506547614737119e-03
      9.6630804378383985e-03 -3.8891696637560805e-03
      -1.6738534699011688e-02 -2.0795403782368618e-02
      -8.8485252601528362e-03 -2.0593914725991311e-03
      -1.4034317778909880e-02 -1.5477314099460777e-02
      5.3392429832321443e-03 2.0115864439132370e-02
      7.5831613813798562e-03 5.3414545299272052e-03
      7.3302912394678978e-03 1.5961310887570468e-02
      -4.7940082095986620e-03 -2.0536311028104513e-02
      -1.6895575967632179e-02 3.7323707570765040e-03
      -1.1582273119444245e-02 -2.1631464126274487e-02
      9.0240489915399714e-03 -1.1926402925915309e-02
      3.4571422621407564e-03 -2.7978193336354639e-03
      -5.2396250101299441e-03 -1.0667449963190974e-02
      1.5088458770518868e-02 -8.5739457699523843e-03
      -9.8500189532831311e-04 1.2171591498203538e-02
      -1.9371049180535845e-02 -2.2321558144061077e-02
      1.9883647566656854e-02 -1.0660506553683767e-02
      -1.2498715439186707e-02 -9.9721017486772978e-03
      8.5419780915254977e-04 7.1944302635969506e-03
      -1.1109440778847988e-02 -7.2830816154227582e-03
      1.4228741982695229e-02 1.0528656336494645e-03
      8.1101339721238140e-03 -5.5358110556703874e-03
      1.8540575110411465e-02 -2.9165309522978405e-03
      6.7982925709784382e-03 1.1835421205176709e-02
      -2.0700183979192963e-02 -1.9689980999612760e-02
      2.1336966708983808e-02 -1.2292651264945992e-02
      6.4734347771066673e-03 -6.9794084177594732e-04
      5.4034088795301581e-03 -1.6477823939816301e-03
      -1.6411007175872246e-02 3.6487593478201348e-03
      -8.6288405425512769e-04 1.2790590250582821e-02
      1.7561542993219655e-02 -6.0301728072917017e-03
      9.4787281190192117e-03 -7.4392973948745941e-03
      8.9087362094138253e-03 -1.1239180805031241e-02
      -1.9591444701299074e-02 -1.4726781884359830e-02
      -2.0923456116744205e-02 -2.0037802560642148e-02
      -8.7113265270103695e-03 -8.9704221736534914e-03
      -1.8038056977902023e-02 1.2353082724352590e-02
      -3.5756981301171159e-03 1.5803215039990420e-02
      1.2922448390292238e-03 -6.6120605275976673e-03
      -1.6969708565295935e-02 -1.5474134229386232e-03
      -6.5562020240349586e-03 4.6396501878375514e-03
      -4.3736183738109337e-03 3.8749974421478529e-03
      1.7844179436557256e-03 -8.2162470076025014e-03
      -1.3999808596604491e-02 -1.4400858109862859e-02
      5.9103062025620749e-04 -7.5990026406140803e-04
      2.1624948923618971e-02 1.7305807934544337e-02
      1.6647648213317098e-02 -3.4383908231859265e-03
      -7.0689924881221266e-03 8.0558664526074325e-03
      -7.1934859706879028e-03 -1.6842566326920074e-02
      7.7008916893436486e-03 -5.0936090870405135e-03
      -1.7103276994424616e-02 -7.5549786800648572e-03
      -5.5794926863474677e-03 -2.2201419958163698e-02
      -1.3297748668931277e-02 1.7997584017855353e-02
      1.9420605617494226e-02 -1.8566271300293830e-02
      1.7013825116475329e-02 -1.5289226415752906e-03
      2.2571838841436570e-02 1.5765528454297763e-03
      -1.1448471164740086e-02 1.4170821551604535e-02
      3.3958375885915870e-03 1.6650456730789284e-02
      -2.5810456968670798e-03 -7.3658552125195186e-03
      -7.1784337733877945e-03 -1.5226040865228862e-02
      -1.3318148266503235e-02 -7.9686181403589224e-04
      2.0337975005751416e-03 -1.8257241889831832e-03
      5.0727710856932982e-03 5.3987942763707138e-03
      9.1801677946452796e-03 -8.6366320969554385e-03
      6.6922749906146734e-03 1.8907300070697391e-02
      -2.2460636371401523e-02 1.6118283504575261e-02
      -1.2908067267184957e-02 1.7460793130189781e-02
      -8.4085498630956709e-03 -1.3128212586205079e-02
      1.9539529788961642e-02 8.8788982415940691e-03
      2.0989559809835526e-02 4.7068228379192638e-03
      -1.5424651791036428e-02 1.5925564804958166e-02
      6.4630915920325435e-03 4.3567487974291528e-03
      1.8077576892664982e-02 7.8324959194358331e-03
      1.0458654666434992e-02 -9.6543786196584963e-03
      -2.4183628168187045e-03 -2.0861368799862993e-02
      -3.0446776589762256e-03 1.3768985901500398e-02
      -1.3015357270258579e-02 3.4666576755352364e-03
      2.4539105605042356e-03 -9.8061411932861969e-03
      7.8632142452756647e-03 -2.0397024953425179e-02
      -1.1054672115128589e-02 -1.8785321112613728e-02
      1.3187093336440773e-02 -1.1572028671664559e-02
      1.7955869780416696e-02 -1.9412805592256957e-02
      -1.5970767140927190e-02 -4.8110921894062419e-03
      1.8650950668677998e-02 -3.1922034702640322e-04
      1.1005301668767089e-02 -6.0046793266196720e-03
      -4.4651853939585331e-04 4.8954424928807890e-03
      -1.1890869393733145e-02 7.1595929917083623e-03
      -1.9595322876498934e-02 1.6256374538417447e-02
      1.4319365935403004e-02 -3.2521099981174567e-03
      9.9231013847215482e-03 5.7912487784264584e-03
      1.3172441723039260e-02 -2.1285491520657250e-02
      -3.4364800940360294e-03 -6.4137724508182912e-04
      4.7454394951031362e-03 -1.3359388574643688e-02
      -4.3199864683922239e-03 -1.2470887350973313e-02
      5.0847433897617316e-03 -5.7277267424770380e-03
      1.2380714590343811e-02 -2.0985361956574841e-02
      -9.0084875936834157e-03 1.5551313988316804e-02
      -7.4135560885773394e-04 3.3858442780393427e-03
      1.6677574199027483e-02 -1.4657920764536357e-02
      2.3822848763372942e-02 7.8120184511654856e-03
      1.8596324661811291e-02 2.0545237981251462e-03
      -1.6130169901882149e-02 3.0063383846059347e-03
      -1.1760026798313759e-03 -2.6965006423177035e-03
      3.0824771732226803e-03 -6.0000976937502372e-03
      1.9129172509137603e-02 1.1202546064132877e-02
      -1.2214813523520935e-02 -1.4153850174450893e-03
      1.8206844443211096e-03 1.1599078368400120e-02
      -9.8994833058500126e-03 1.7084154331914920e-02
      1.6690531537777997e-02 1.2880873009456503e-02
      1.9864066172196188e-02 -1.2559015147417465e-02
      1.8092576378696525e-02 1.1486588149850976e-02
      1.7464319401299949e-01 9.6383058036841593e-02
      -2.6523074108391928e-02 -1.2513472109696793e-02
      -1.0027672299296343e-01 -1.3705556486337761e-01
      2.2378076895808263e-01 -1.6502483890552672e-01
      9.5215568149287957e-02 1.2780379940644679e-01
      1.4737474768780306e-01 -1.7855829712185198e-01
      2.0401767754871698e-02 6.5526482364164876e-02
      -1.3765948846446240e-02</_>
    <_>
      -8.1908403998205848e-01 -3.3097201780839569e-01
      8.1746703938305543e-01 -2.8094381447601513e-01
      -2.4243526758270578e-01 -1.0314827897259118e+00
      1.5785173637193844e-01 2.7627315095073279e-01
      -7.6375759821685607e-01 -2.5429107752793062e-01
      7.3967753765887756e-01 -1.0304830206922677e+00
      9.6567682179209038e-02 1.0777871925237752e+00
      1.5840252300377994e-01 5.8814527895316082e-01
      1.7415030391260455e-01 -4.4629989678098431e-01
      -9.9939808034686473e-01 8.0742344360520843e-02
      -3.0074908901439410e-02 1.3184158327355271e+00
      -1.0602207062860314e+00 -6.8236395749894749e-02
      -5.2236657358048133e-01 -9.8332924654718948e-02
      8.1692446135596264e-01 -1.8998359102885456e-01
      -9.0074737962546936e-01 -3.8604671741200985e-01
      -8.0046718409161344e-01 -9.1469338241382514e-01
      8.4587846434310265e-01 4.9621236554669573e-01
      8.1470921352072501e-01 1.0344482777289887e+00
      -9.4142518901868866e-02 1.9074390005780650e-01
      -2.6703440164959824e-01 -4.3518937254074830e-01
      4.1518069935055452e-01 6.8725074109907702e-01
      -3.4810623606441055e-01 1.0698593837301607e+00
      3.1064408058680587e-01 -5.0344333155382670e-01
      -9.9622756103077192e-01 -2.2568287858179287e-01</_></weights></opencv_ml_ann_mlp>
</opencv_storage>
